<?xml version="1.0"?>
<opencv_storage>
<stage1>
  <maxWeakCount>10</maxWeakCount>
  <stageThreshold>-1.3934787511825562e+00</stageThreshold>
  <weakClassifiers>
    <_>
      <internalNodes>
        0 -1 843343 -1.5818743407726288e-01</internalNodes>
      <leafValues>
        6.9999998807907104e-01 -6.0263156890869141e-01</leafValues></_>
    <_>
      <internalNodes>
        0 -1 247681 7.1837007999420166e-02</internalNodes>
      <leafValues>
        -5.3131711483001709e-01 5.8866459131240845e-01</leafValues></_>
    <_>
      <internalNodes>
        0 -1 1185423 3.2449588179588318e-02</internalNodes>
      <leafValues>
        -2.8291282057762146e-01 6.5251260995864868e-01</leafValues></_>
    <_>
      <internalNodes>
        0 -1 2913868 -1.6733337193727493e-02</internalNodes>
      <leafValues>
        6.4047092199325562e-01 -2.5013437867164612e-01</leafValues></_>
    <_>
      <internalNodes>
        0 -1 2095493 -1.7448730766773224e-02</internalNodes>
      <leafValues>
        6.3864850997924805e-01 -2.1873083710670471e-01</leafValues></_>
    <_>
      <internalNodes>
        0 -1 1484019 7.3403362184762955e-03</internalNodes>
      <leafValues>
        -2.0530267059803009e-01 6.6627722978591919e-01</leafValues></_>
    <_>
      <internalNodes>
        0 -1 543979 6.8457582965493202e-03</internalNodes>
      <leafValues>
        -2.1824169158935547e-01 5.4362308979034424e-01</leafValues></_>
    <_>
      <internalNodes>
        0 -1 3013416 -3.3721451472956687e-05</internalNodes>
      <leafValues>
        -6.6695332527160645e-01 1.9078226387500763e-01</leafValues></_>
    <_>
      <internalNodes>
        0 -1 1780337 -4.0269866585731506e-03</internalNodes>
      <leafValues>
        3.9016455411911011e-01 -3.2552769780158997e-01</leafValues></_>
    <_>
      <internalNodes>
        0 -1 2537441 -1.7744561773724854e-05</internalNodes>
      <leafValues>
        -7.3894667625427246e-01 1.7895789444446564e-01</leafValues></_></weakClassifiers></stage1>
</opencv_storage>
